<?xml version="1.0" encoding="UTF-8"?>
<BIF VERSION="0.3"  xmlns="http://www.cs.ubc.ca/labs/lci/fopi/ve/XMLBIFv0_3"
	xmlns:xsi="http://www.w3.org/2001/XMLSchema-instance"
	xsi:schemaLocation="http://www.cs.ubc.ca/labs/lci/fopi/ve/XMLBIFv0_3 http://www.cs.ubc.ca/labs/lci/fopi/ve/XMLBIFv0_3/XMLBIFv0_3.xsd">
<NETWORK>
<NAME>Untitled</NAME>
<PROPERTY>detailed = </PROPERTY>
<PROPERTY>short = </PROPERTY>

<VARIABLE TYPE="nature">
	<NAME>Sonne0</NAME>
	<OUTCOME>T</OUTCOME>
	<OUTCOME>F</OUTCOME>
	<PROPERTY>position = (7102.2607421875, 5525.5849609375)</PROPERTY>
</VARIABLE>

<VARIABLE TYPE="nature">
	<NAME>Wärme0</NAME>
	<OUTCOME>T</OUTCOME>
	<OUTCOME>F</OUTCOME>
	<PROPERTY>position = (7065.3798828125, 5686.6923828125)</PROPERTY>
</VARIABLE>

<VARIABLE TYPE="nature">
	<NAME>Sonne1</NAME>
	<OUTCOME>T</OUTCOME>
	<OUTCOME>F</OUTCOME>
	<PROPERTY>position = (7379.83203125, 5537.23193359375)</PROPERTY>
</VARIABLE>

<VARIABLE TYPE="nature">
	<NAME>Wärme1</NAME>
	<OUTCOME>T</OUTCOME>
	<OUTCOME>F</OUTCOME>
	<PROPERTY>position = (7350.7158203125, 5690.5751953125)</PROPERTY>
</VARIABLE>

<VARIABLE TYPE="nature">
	<NAME>Sonne2</NAME>
	<OUTCOME>T</OUTCOME>
	<OUTCOME>F</OUTCOME>
	<PROPERTY>position = (7680.69580078125, 5543.0546875)</PROPERTY>
</VARIABLE>

<VARIABLE TYPE="nature">
	<NAME>Wärme2</NAME>
	<OUTCOME>T</OUTCOME>
	<OUTCOME>F</OUTCOME>
	<PROPERTY>position = (7637.99169921875, 5680.8701171875)</PROPERTY>
</VARIABLE>

<VARIABLE TYPE="nature">
	<NAME>Sonne3</NAME>
	<OUTCOME>T</OUTCOME>
	<OUTCOME>F</OUTCOME>
	<PROPERTY>position = (7925.26953125, 5541.1142578125)</PROPERTY>
</VARIABLE>

<VARIABLE TYPE="nature">
	<NAME>Wärme3</NAME>
	<OUTCOME>T</OUTCOME>
	<OUTCOME>F</OUTCOME>
	<PROPERTY>position = (7946.6201171875, 5680.8701171875)</PROPERTY>
</VARIABLE>

<VARIABLE TYPE="nature">
	<NAME>ImmerSonne</NAME>
	<OUTCOME>T</OUTCOME>
	<OUTCOME>F</OUTCOME>
	<PROPERTY>position = (7595.28857421875, 5267.42431640625)</PROPERTY>
</VARIABLE>

<DEFINITION>
	<FOR>Sonne0</FOR>
	<TABLE>1.0 0.0</TABLE>
</DEFINITION>

<DEFINITION>
	<FOR>Wärme0</FOR>
	<TABLE>1.0 0.0</TABLE>
</DEFINITION>

<DEFINITION>
	<FOR>Sonne1</FOR>
	<GIVEN>Sonne0</GIVEN>
	<GIVEN>Wärme0</GIVEN>
	<TABLE>0.7 0.3 0.6 0.4 0.4 0.6 0.2 0.8</TABLE>
</DEFINITION>

<DEFINITION>
	<FOR>Wärme1</FOR>
	<GIVEN>Sonne0</GIVEN>
	<GIVEN>Wärme0</GIVEN>
	<TABLE>0.8 0.2 0.5 0.5 0.3 0.7 0.2 0.8</TABLE>
</DEFINITION>

<DEFINITION>
	<FOR>Sonne2</FOR>
	<GIVEN>Sonne1</GIVEN>
	<GIVEN>Wärme1</GIVEN>
	<TABLE>0.7 0.3 0.6 0.4 0.4 0.6 0.2 0.8</TABLE>
</DEFINITION>

<DEFINITION>
	<FOR>Wärme2</FOR>
	<GIVEN>Sonne1</GIVEN>
	<GIVEN>Wärme1</GIVEN>
	<TABLE>0.8 0.2 0.5 0.5 0.3 0.7 0.2 0.8</TABLE>
</DEFINITION>

<DEFINITION>
	<FOR>Sonne3</FOR>
	<GIVEN>Sonne2</GIVEN>
	<GIVEN>Wärme2</GIVEN>
	<TABLE>0.7 0.3 0.6 0.4 0.4 0.6 0.2 0.8</TABLE>
</DEFINITION>

<DEFINITION>
	<FOR>Wärme3</FOR>
	<GIVEN>Sonne2</GIVEN>
	<GIVEN>Wärme2</GIVEN>
	<TABLE>0.8 0.2 0.5 0.5 0.3 0.7 0.2 0.8</TABLE>
</DEFINITION>

<DEFINITION>
	<FOR>ImmerSonne</FOR>
	<GIVEN>Sonne1</GIVEN>
	<GIVEN>Sonne2</GIVEN>
	<GIVEN>Sonne3</GIVEN>
	<TABLE>1.0 0.0 0.0 1.0 0.0 1.0 0.0 1.0 0.0 1.0 0.0 1.0 0.0 1.0 0.0 1.0</TABLE>
</DEFINITION>
</NETWORK>
</BIF>
